<?xml version="1.0"?>
<opencv_storage>
<mycatdetector2 type_id="opencv-haar-classifier">
  <size>
    24 24</size>
  <stages>
    <_>
      <trees>
        <_>
          <_>
            <feature>
              <rects>
                <_>
                  7 0 8 6 -1.</_>
                <_>
                  7 3 8 3 2.</_></rects>
              <tilted>0</tilted></feature>
            <threshold>0.0125134298577905</threshold>
            <left_val>-0.6774191856384277</left_val>
            <right_val>0.8399974703788757</right_val></_></_>
        <_>
          <_>
            <feature>
              <rects>
                <_>
                  10 0 12 8 -1.</_>
                <_>
                  16 0 6 4 2.</_>
                <_>
                  10 4 6 4 2.</_></rects>
              <tilted>0</tilted></feature>
            <threshold>0.0179411508142948</threshold>
            <left_val>-0.3797760903835297</left_val>
            <right_val>0.6231092810630798</right_val></_></_>
        <_>
          <_>
            <feature>
              <rects>
                <_>
                  3 7 7 4 -1.</_>
                <_>
                  3 9 7 2 2.</_></rects>
              <tilted>0</tilted></feature>
            <threshold>4.4693681411445141e-003</threshold>
            <left_val>-0.6889498233795166</left_val>
            <right_val>0.8062028884887695</right_val></_></_></trees>
      <stage_threshold>-0.2509923875331879</stage_threshold>
      <parent>-1</parent>
      <next>-1</next></_>
    <_>
      <trees>
        <_>
          <_>
            <feature>
              <rects>
                <_>
                  6 4 6 16 -1.</_>
                <_>
                  6 4 3 8 2.</_>
                <_>
                  9 12 3 8 2.</_></rects>
              <tilted>0</tilted></feature>
            <threshold>-0.0195196699351072</threshold>
            <left_val>0.7647060155868530</left_val>
            <right_val>-0.6393424868583679</right_val></_></_>
        <_>
          <_>
            <feature>
              <rects>
                <_>
                  15 16 4 5 -1.</_>
                <_>
                  15 16 2 5 2.</_></rects>
              <tilted>0</tilted></feature>
            <threshold>7.8535247594118118e-003</threshold>
            <left_val>-0.0538301691412926</left_val>
            <right_val>0.4951600134372711</right_val></_></_>
        <_>
          <_>
            <feature>
              <rects>
                <_>
                  5 16 4 5 -1.</_>
                <_>
                  7 16 2 5 2.</_></rects>
              <tilted>0</tilted></feature>
            <threshold>5.2891857922077179e-003</threshold>
            <left_val>-0.4416511058807373</left_val>
            <right_val>0.9999995827674866</right_val></_></_>
        <_>
          <_>
            <feature>
              <rects>
                <_>
                  16 9 8 3 -1.</_>
                <_>
                  18 11 4 3 2.</_></rects>
              <tilted>1</tilted></feature>
            <threshold>4.7090519219636917e-003</threshold>
            <left_val>-0.3597184121608734</left_val>
            <right_val>0.6341835260391235</right_val></_></_>
        <_>
          <_>
            <feature>
              <rects>
                <_>
                  8 2 5 6 -1.</_>
                <_>
                  6 4 5 2 3.</_></rects>
              <tilted>1</tilted></feature>
            <threshold>-0.0394552797079086</threshold>
            <left_val>0.8522574901580811</left_val>
            <right_val>-0.5370501279830933</right_val></_></_></trees>
      <stage_threshold>-0.6422845721244812</stage_threshold>
      <parent>0</parent>
      <next>-1</next></_>
    <_>
      <trees>
        <_>
          <_>
            <feature>
              <rects>
                <_>
                  12 1 9 6 -1.</_>
                <_>
                  10 3 9 2 3.</_></rects>
              <tilted>1</tilted></feature>
            <threshold>0.0321002192795277</threshold>
            <left_val>-0.5873014926910400</left_val>
            <right_val>0.7550997734069824</right_val></_></_>
        <_>
          <_>
            <feature>
              <rects>
                <_>
                  20 9 4 15 -1.</_>
                <_>
                  20 9 2 15 2.</_></rects>
              <tilted>0</tilted></feature>
            <threshold>6.8991039879620075e-003</threshold>
            <left_val>-0.2431208938360214</left_val>
            <right_val>0.2759661078453064</right_val></_></_>
        <_>
          <_>
            <feature>
              <rects>
                <_>
                  0 0 14 8 -1.</_>
                <_>
                  0 0 7 4 2.</_>
                <_>
                  7 4 7 4 2.</_></rects>
              <tilted>0</tilted></feature>
            <threshold>0.0322509184479713</threshold>
            <left_val>-0.7014188170433044</left_val>
            <right_val>0.6682227849960327</right_val></_></_>
        <_>
          <_>
            <feature>
              <rects>
                <_>
                  19 8 4 9 -1.</_>
                <_>
                  19 11 4 3 3.</_></rects>
              <tilted>0</tilted></feature>
            <threshold>-9.3907612608745694e-004</threshold>
            <left_val>0.2478953003883362</left_val>
            <right_val>-0.2994945943355560</right_val></_></_></trees>
      <stage_threshold>-0.7648587822914124</stage_threshold>
      <parent>1</parent>
      <next>-1</next></_>
    <_>
      <trees>
        <_>
          <_>
            <feature>
              <rects>
                <_>
                  0 14 6 2 -1.</_>
                <_>
                  3 14 3 2 2.</_></rects>
              <tilted>0</tilted></feature>
            <threshold>1.8061869777739048e-003</threshold>
            <left_val>-0.6785715222358704</left_val>
            <right_val>0.6785694956779480</right_val></_></_>
        <_>
          <_>
            <feature>
              <rects>
                <_>
                  15 6 4 3 -1.</_>
                <_>
                  16 7 2 3 2.</_></rects>
              <tilted>1</tilted></feature>
            <threshold>-0.0101779401302338</threshold>
            <left_val>0.6702681183815002</left_val>
            <right_val>-0.3219836950302124</right_val></_></_>
        <_>
          <_>
            <feature>
              <rects>
                <_>
                  6 8 3 3 -1.</_>
                <_>
                  5 9 3 1 3.</_></rects>
              <tilted>1</tilted></feature>
            <threshold>2.4055589456111193e-003</threshold>
            <left_val>-0.4973449110984802</left_val>
            <right_val>0.7056031227111816</right_val></_></_></trees>
      <stage_threshold>-0.5056483745574951</stage_threshold>
      <parent>2</parent>
      <next>-1</next></_>
    <_>
      <trees>
        <_>
          <_>
            <feature>
              <rects>
                <_>
                  2 11 12 4 -1.</_>
                <_>
                  2 12 12 2 2.</_></rects>
              <tilted>0</tilted></feature>
            <threshold>-2.7816339861601591e-003</threshold>
            <left_val>0.7560976147651672</left_val>
            <right_val>-0.4366188049316406</right_val></_></_>
        <_>
          <_>
            <feature>
              <rects>
                <_>
                  12 1 4 12 -1.</_>
                <_>
                  12 1 2 12 2.</_></rects>
              <tilted>1</tilted></feature>
            <threshold>-0.0274973995983601</threshold>
            <left_val>0.2561053037643433</left_val>
            <right_val>-0.2610527873039246</right_val></_></_>
        <_>
          <_>
            <feature>
              <rects>
                <_>
                  3 2 18 16 -1.</_>
                <_>
                  3 2 9 8 2.</_>
                <_>
                  12 10 9 8 2.</_></rects>
              <tilted>0</tilted></feature>
            <threshold>-0.0831011980772018</threshold>
            <left_val>-0.9511660933494568</left_val>
            <right_val>0.3758878111839294</right_val></_></_>
        <_>
          <_>
            <feature>
              <rects>
                <_>
                  20 5 4 6 -1.</_>
                <_>
                  21 6 2 6 2.</_></rects>
              <tilted>1</tilted></feature>
            <threshold>9.6647329628467560e-003</threshold>
            <left_val>-0.4045256078243256</left_val>
            <right_val>0.4524545967578888</right_val></_></_>
        <_>
          <_>
            <feature>
              <rects>
                <_>
                  10 1 11 2 -1.</_>
                <_>
                  10 1 11 1 2.</_></rects>
              <tilted>1</tilted></feature>
            <threshold>-7.6530198566615582e-003</threshold>
            <left_val>0.5590113997459412</left_val>
            <right_val>-0.6627154946327210</right_val></_></_></trees>
      <stage_threshold>-0.5320447087287903</stage_threshold>
      <parent>3</parent>
      <next>-1</next></_>
    <_>
      <trees>
        <_>
          <_>
            <feature>
              <rects>
                <_>
                  6 3 6 18 -1.</_>
                <_>
                  6 3 3 9 2.</_>
                <_>
                  9 12 3 9 2.</_></rects>
              <tilted>0</tilted></feature>
            <threshold>-0.0414705090224743</threshold>
            <left_val>0.7272728085517883</left_val>
            <right_val>-0.4705871939659119</right_val></_></_>
        <_>
          <_>
            <feature>
              <rects>
                <_>
                  20 11 4 11 -1.</_>
                <_>
                  20 11 2 11 2.</_></rects>
              <tilted>0</tilted></feature>
            <threshold>8.0634448677301407e-003</threshold>
            <left_val>-0.2243283987045288</left_val>
            <right_val>0.3235613107681274</right_val></_></_>
        <_>
          <_>
            <feature>
              <rects>
                <_>
                  0 11 4 11 -1.</_>
                <_>
                  2 11 2 11 2.</_></rects>
              <tilted>0</tilted></feature>
            <threshold>7.8139435499906540e-003</threshold>
            <left_val>-0.5674691200256348</left_val>
            <right_val>0.6601806879043579</right_val></_></_>
        <_>
          <_>
            <feature>
              <rects>
                <_>
                  19 16 3 6 -1.</_>
                <_>
                  20 18 1 2 9.</_></rects>
              <tilted>0</tilted></feature>
            <threshold>7.6487450860440731e-003</threshold>
            <left_val>0.0276355408132076</left_val>
            <right_val>-0.6660897135734558</right_val></_></_></trees>
      <stage_threshold>-0.6868594884872437</stage_threshold>
      <parent>4</parent>
      <next>-1</next></_>
    <_>
      <trees>
        <_>
          <_>
            <feature>
              <rects>
                <_>
                  1 0 12 8 -1.</_>
                <_>
                  1 0 6 4 2.</_>
                <_>
                  7 4 6 4 2.</_></rects>
              <tilted>0</tilted></feature>
            <threshold>2.7221511118113995e-003</threshold>
            <left_val>-0.9622641801834106</left_val>
            <right_val>0.8644043803215027</right_val></_></_>
        <_>
          <_>
            <feature>
              <rects>
                <_>
                  12 1 4 12 -1.</_>
                <_>
                  12 1 2 12 2.</_></rects>
              <tilted>1</tilted></feature>
            <threshold>-3.2970489701256156e-004</threshold>
            <left_val>0.5178824067115784</left_val>
            <right_val>-0.9401111006736755</right_val></_></_>
        <_>
          <_>
            <feature>
              <rects>
                <_>
                  12 0 12 4 -1.</_>
                <_>
                  12 0 12 2 2.</_></rects>
              <tilted>1</tilted></feature>
            <threshold>-0.0166425108909607</threshold>
            <left_val>0.9368051886558533</left_val>
            <right_val>-0.9206995964050293</right_val></_></_>
        <_>
          <_>
            <feature>
              <rects>
                <_>
                  19 9 4 9 -1.</_>
                <_>
                  19 9 2 9 2.</_></rects>
              <tilted>0</tilted></feature>
            <threshold>2.3816060274839401e-003</threshold>
            <left_val>-0.8467974066734314</left_val>
            <right_val>0.6512290835380554</right_val></_></_>
        <_>
          <_>
            <feature>
              <rects>
                <_>
                  1 12 4 9 -1.</_>
                <_>
                  3 12 2 9 2.</_></rects>
              <tilted>0</tilted></feature>
            <threshold>7.8702002065256238e-004</threshold>
            <left_val>-0.9767183065414429</left_val>
            <right_val>0.8884595036506653</right_val></_></_>
        <_>
          <_>
            <feature>
              <rects>
                <_>
                  14 3 3 11 -1.</_>
                <_>
                  15 4 1 11 3.</_></rects>
              <tilted>1</tilted></feature>
            <threshold>-0.0176013708114624</threshold>
            <left_val>0.7557939887046814</left_val>
            <right_val>-0.9849483966827393</right_val></_></_>
        <_>
          <_>
            <feature>
              <rects>
                <_>
                  0 1 14 6 -1.</_>
                <_>
                  0 1 7 3 2.</_>
                <_>
                  7 4 7 3 2.</_></rects>
              <tilted>0</tilted></feature>
            <threshold>2.7628839015960693e-003</threshold>
            <left_val>-1.</left_val>
            <right_val>0.9060217142105103</right_val></_></_>
        <_>
          <_>
            <feature>
              <rects>
                <_>
                  4 0 20 5 -1.</_>
                <_>
                  9 0 10 5 2.</_></rects>
              <tilted>0</tilted></feature>
            <threshold>-0.0326081998646259</threshold>
            <left_val>0.6023619174957275</left_val>
            <right_val>-0.9999998807907105</right_val></_></_></trees>
      <stage_threshold>0.8738322854042053</stage_threshold>
      <parent>5</parent>
      <next>-1</next></_>
    <_>
      <trees>
        <_>
          <_>
            <feature>
              <rects>
                <_>
                  4 1 9 3 -1.</_>
                <_>
                  3 2 9 1 3.</_></rects>
              <tilted>1</tilted></feature>
            <threshold>-0.0119674196466804</threshold>
            <left_val>0.7894737124443054</left_val>
            <right_val>-0.4054045975208283</right_val></_></_>
        <_>
          <_>
            <feature>
              <rects>
                <_>
                  14 11 2 4 -1.</_>
                <_>
                  15 11 1 2 2.</_>
                <_>
                  14 13 1 2 2.</_></rects>
              <tilted>0</tilted></feature>
            <threshold>2.5537000037729740e-003</threshold>
            <left_val>-0.1996424049139023</left_val>
            <right_val>0.8242776989936829</right_val></_></_>
        <_>
          <_>
            <feature>
              <rects>
                <_>
                  8 11 2 4 -1.</_>
                <_>
                  8 11 1 2 2.</_>
                <_>
                  9 13 1 2 2.</_></rects>
              <tilted>0</tilted></feature>
            <threshold>-3.3239130862057209e-003</threshold>
            <left_val>0.9124597907066345</left_val>
            <right_val>-0.4051819145679474</right_val></_></_>
        <_>
          <_>
            <feature>
              <rects>
                <_>
                  16 9 4 15 -1.</_>
                <_>
                  17 9 2 15 2.</_></rects>
              <tilted>0</tilted></feature>
            <threshold>9.8222470842301846e-004</threshold>
            <left_val>-0.3068284094333649</left_val>
            <right_val>0.4393481910228729</right_val></_></_>
        <_>
          <_>
            <feature>
              <rects>
                <_>
                  10 5 3 3 -1.</_>
                <_>
                  10 6 3 1 3.</_></rects>
              <tilted>0</tilted></feature>
            <threshold>1.3422489864751697e-003</threshold>
            <left_val>0.4904708862304688</left_val>
            <right_val>-0.7443532943725586</right_val></_></_></trees>
      <stage_threshold>-0.8265864253044128</stage_threshold>
      <parent>6</parent>
      <next>-1</next></_>
    <_>
      <trees>
        <_>
          <_>
            <feature>
              <rects>
                <_>
                  1 6 14 1 -1.</_>
                <_>
                  8 6 7 1 2.</_></rects>
              <tilted>0</tilted></feature>
            <threshold>0.0141637800261378</threshold>
            <left_val>-0.4857139885425568</left_val>
            <right_val>0.8095214962959290</right_val></_></_>
        <_>
          <_>
            <feature>
              <rects>
                <_>
                  14 2 4 10 -1.</_>
                <_>
                  16 2 2 5 2.</_>
                <_>
                  14 7 2 5 2.</_></rects>
              <tilted>0</tilted></feature>
            <threshold>-0.0328014604747295</threshold>
            <left_val>1.</left_val>
            <right_val>-0.0182412192225456</right_val></_></_>
        <_>
          <_>
            <feature>
              <rects>
                <_>
                  6 2 4 10 -1.</_>
                <_>
                  6 2 2 5 2.</_>
                <_>
                  8 7 2 5 2.</_></rects>
              <tilted>0</tilted></feature>
            <threshold>-7.2001479566097260e-003</threshold>
            <left_val>0.8218001127243042</left_val>
            <right_val>-0.3716107010841370</right_val></_></_>
        <_>
          <_>
            <feature>
              <rects>
                <_>
                  15 9 3 3 -1.</_>
                <_>
                  16 10 1 3 3.</_></rects>
              <tilted>1</tilted></feature>
            <threshold>-8.0122426152229309e-003</threshold>
            <left_val>0.7001960277557373</left_val>
            <right_val>-0.0895200967788696</right_val></_></_>
        <_>
          <_>
            <feature>
              <rects>
                <_>
                  6 10 4 3 -1.</_>
                <_>
                  7 10 2 3 2.</_></rects>
              <tilted>0</tilted></feature>
            <threshold>-5.9077641926705837e-003</threshold>
            <left_val>0.9325451254844666</left_val>
            <right_val>-0.4872686862945557</right_val></_></_></trees>
      <stage_threshold>-0.2589438855648041</stage_threshold>
      <parent>7</parent>
      <next>-1</next></_>
    <_>
      <trees>
        <_>
          <_>
            <feature>
              <rects>
                <_>
                  2 5 4 8 -1.</_>
                <_>
                  2 5 2 4 2.</_>
                <_>
                  4 9 2 4 2.</_></rects>
              <tilted>0</tilted></feature>
            <threshold>8.2048028707504272e-003</threshold>
            <left_val>-0.4705880880355835</left_val>
            <right_val>0.7272707223892212</right_val></_></_>
        <_>
          <_>
            <feature>
              <rects>
                <_>
                  12 8 1 12 -1.</_>
                <_>
                  12 12 1 4 3.</_></rects>
              <tilted>0</tilted></feature>
            <threshold>-3.0374440830200911e-003</threshold>
            <left_val>0.4719449877738953</left_val>
            <right_val>-0.3714478909969330</right_val></_></_>
        <_>
          <_>
            <feature>
              <rects>
                <_>
                  3 6 18 3 -1.</_>
                <_>
                  9 6 6 3 3.</_></rects>
              <tilted>0</tilted></feature>
            <threshold>0.0821964293718338</threshold>
            <left_val>-0.3401507139205933</left_val>
            <right_val>0.8219475150108337</right_val></_></_>
        <_>
          <_>
            <feature>
              <rects>
                <_>
                  11 2 6 2 -1.</_>
                <_>
                  11 3 6 1 2.</_></rects>
              <tilted>0</tilted></feature>
            <threshold>5.5267300922423601e-004</threshold>
            <left_val>-0.5205032229423523</left_val>
            <right_val>0.3457351922988892</right_val></_></_>
        <_>
          <_>
            <feature>
              <rects>
                <_>
                  1 4 22 1 -1.</_>
                <_>
                  12 4 11 1 2.</_></rects>
              <tilted>0</tilted></feature>
            <threshold>-8.9427279308438301e-003</threshold>
            <left_val>0.8155251145362854</left_val>
            <right_val>-0.5045567154884338</right_val></_></_></trees>
      <stage_threshold>-1.0093879699707031</stage_threshold>
      <parent>8</parent>
      <next>-1</next></_>
    <_>
      <trees>
        <_>
          <_>
            <feature>
              <rects>
                <_>
                  0 18 4 6 -1.</_>
                <_>
                  1 18 2 6 2.</_></rects>
              <tilted>0</tilted></feature>
            <threshold>-4.1866549290716648e-003</threshold>
            <left_val>-0.8709676861763001</left_val>
            <right_val>0.3333326876163483</right_val></_></_>
        <_>
          <_>
            <feature>
              <rects>
                <_>
                  8 14 9 3 -1.</_>
                <_>
                  11 14 3 3 3.</_></rects>
              <tilted>0</tilted></feature>
            <threshold>-0.0441590212285519</threshold>
            <left_val>0.5646424293518066</left_val>
            <right_val>-0.1147375032305718</right_val></_></_>
        <_>
          <_>
            <feature>
              <rects>
                <_>
                  9 21 6 3 -1.</_>
                <_>
                  11 21 2 3 3.</_></rects>
              <tilted>0</tilted></feature>
            <threshold>-5.3092390298843384e-003</threshold>
            <left_val>-0.9267947077751160</left_val>
            <right_val>0.2972042858600617</right_val></_></_>
        <_>
          <_>
            <feature>
              <rects>
                <_>
                  16 7 2 1 -1.</_>
                <_>
                  16 7 1 1 2.</_></rects>
              <tilted>1</tilted></feature>
            <threshold>-4.1494579054415226e-003</threshold>
            <left_val>1.</left_val>
            <right_val>-0.2543860971927643</right_val></_></_>
        <_>
          <_>
            <feature>
              <rects>
                <_>
                  8 7 1 2 -1.</_>
                <_>
                  8 7 1 1 2.</_></rects>
              <tilted>1</tilted></feature>
            <threshold>-1.1103049619123340e-003</threshold>
            <left_val>0.6937531232833862</left_val>
            <right_val>-0.4715115129947662</right_val></_></_></trees>
      <stage_threshold>-0.2491338998079300</stage_threshold>
      <parent>9</parent>
      <next>-1</next></_>
    <_>
      <trees>
        <_>
          <_>
            <feature>
              <rects>
                <_>
                  10 0 4 6 -1.</_>
                <_>
                  10 2 4 2 3.</_></rects>
              <tilted>0</tilted></feature>
            <threshold>-0.0114892004057765</threshold>
            <left_val>-0.8787878751754761</left_val>
            <right_val>0.3670879006385803</right_val></_></_>
        <_>
          <_>
            <feature>
              <rects>
                <_>
                  13 11 4 3 -1.</_>
                <_>
                  14 11 2 3 2.</_></rects>
              <tilted>0</tilted></feature>
            <threshold>1.8884750315919518e-003</threshold>
            <left_val>-0.2931962907314301</left_val>
            <right_val>0.4071772992610931</right_val></_></_>
        <_>
          <_>
            <feature>
              <rects>
                <_>
                  9 11 2 8 -1.</_>
                <_>
                  9 11 1 4 2.</_>
                <_>
                  10 15 1 4 2.</_></rects>
              <tilted>0</tilted></feature>
            <threshold>-5.6074662134051323e-003</threshold>
            <left_val>1.</left_val>
            <right_val>-0.2990894019603729</right_val></_></_></trees>
      <stage_threshold>-0.2251978069543839</stage_threshold>
      <parent>10</parent>
      <next>-1</next></_>
    <_>
      <trees>
        <_>
          <_>
            <feature>
              <rects>
                <_>
                  12 7 6 3 -1.</_>
                <_>
                  14 9 2 3 3.</_></rects>
              <tilted>1</tilted></feature>
            <threshold>-0.0192320905625820</threshold>
            <left_val>0.7073171734809876</left_val>
            <right_val>-0.4084497988224030</right_val></_></_>
        <_>
          <_>
            <feature>
              <rects>
                <_>
                  20 1 4 10 -1.</_>
                <_>
                  22 1 2 5 2.</_>
                <_>
                  20 6 2 5 2.</_></rects>
              <tilted>0</tilted></feature>
            <threshold>4.4221850112080574e-003</threshold>
            <left_val>-0.2205470949411392</left_val>
            <right_val>0.3762192130088806</right_val></_></_>
        <_>
          <_>
            <feature>
              <rects>
                <_>
                  11 14 1 2 -1.</_>
                <_>
                  11 15 1 1 2.</_></rects>
              <tilted>0</tilted></feature>
            <threshold>-8.8293978478759527e-004</threshold>
            <left_val>0.8212651014328003</left_val>
            <right_val>-0.3853490054607391</right_val></_></_></trees>
      <stage_threshold>-0.4175797104835510</stage_threshold>
      <parent>11</parent>
      <next>-1</next></_>
    <_>
      <trees>
        <_>
          <_>
            <feature>
              <rects>
                <_>
                  6 15 8 1 -1.</_>
                <_>
                  8 15 4 1 2.</_></rects>
              <tilted>0</tilted></feature>
            <threshold>-4.5550079084932804e-003</threshold>
            <left_val>0.8666666746139526</left_val>
            <right_val>-0.3170726001262665</right_val></_></_>
        <_>
          <_>
            <feature>
              <rects>
                <_>
                  12 10 6 12 -1.</_>
                <_>
                  14 14 2 4 9.</_></rects>
              <tilted>0</tilted></feature>
            <threshold>0.0131951300427318</threshold>
            <left_val>-0.3524979948997498</left_val>
            <right_val>0.4204741120338440</right_val></_></_>
        <_>
          <_>
            <feature>
              <rects>
                <_>
                  8 17 3 3 -1.</_>
                <_>
                  9 17 1 3 3.</_></rects>
              <tilted>0</tilted></feature>
            <threshold>2.4581529942224734e-005</threshold>
            <left_val>-0.5269150733947754</left_val>
            <right_val>0.5335196852684021</right_val></_></_>
        <_>
          <_>
            <feature>
              <rects>
                <_>
                  18 6 4 6 -1.</_>
                <_>
                  18 8 4 2 3.</_></rects>
              <tilted>0</tilted></feature>
            <threshold>-0.0117360595613718</threshold>
            <left_val>0.7565069198608398</left_val>
            <right_val>-0.2121022045612335</right_val></_></_>
        <_>
          <_>
            <feature>
              <rects>
                <_>
                  2 6 4 6 -1.</_>
                <_>
                  2 8 4 2 3.</_></rects>
              <tilted>0</tilted></feature>
            <threshold>5.4645691998302937e-003</threshold>
            <left_val>-0.4774607121944428</left_val>
            <right_val>0.7088518142700195</right_val></_></_></trees>
      <stage_threshold>-0.8256136775016785</stage_threshold>
      <parent>12</parent>
      <next>-1</next></_>
    <_>
      <trees>
        <_>
          <_>
            <feature>
              <rects>
                <_>
                  9 23 4 1 -1.</_>
                <_>
                  10 23 2 1 2.</_></rects>
              <tilted>0</tilted></feature>
            <threshold>1.2344359420239925e-003</threshold>
            <left_val>0.2307689934968948</left_val>
            <right_val>-0.9999973773956299</right_val></_></_>
        <_>
          <_>
            <feature>
              <rects>
                <_>
                  12 2 2 6 -1.</_>
                <_>
                  10 4 2 2 3.</_></rects>
              <tilted>1</tilted></feature>
            <threshold>1.8434900557622313e-003</threshold>
            <left_val>-0.3800683021545410</left_val>
            <right_val>0.0447119213640690</right_val></_></_>
        <_>
          <_>
            <feature>
              <rects>
                <_>
                  2 2 3 2 -1.</_>
                <_>
                  2 3 3 1 2.</_></rects>
              <tilted>0</tilted></feature>
            <threshold>3.8755839341320097e-004</threshold>
            <left_val>-0.2859106957912445</left_val>
            <right_val>0.8992168903350830</right_val></_></_>
        <_>
          <_>
            <feature>
              <rects>
                <_>
                  18 11 3 4 -1.</_>
                <_>
                  18 13 3 2 2.</_></rects>
              <tilted>0</tilted></feature>
            <threshold>0.0127369500696659</threshold>
            <left_val>0.0823862627148628</left_val>
            <right_val>-0.5449212789535523</right_val></_></_>
        <_>
          <_>
            <feature>
              <rects>
                <_>
                  3 11 3 4 -1.</_>
                <_>
                  3 13 3 2 2.</_></rects>
              <tilted>0</tilted></feature>
            <threshold>5.0744009204208851e-003</threshold>
            <left_val>-0.3237223923206329</left_val>
            <right_val>0.8765242099761963</right_val></_></_>
        <_>
          <_>
            <feature>
              <rects>
                <_>
                  11 3 8 2 -1.</_>
                <_>
                  15 3 4 1 2.</_>
                <_>
                  11 4 4 1 2.</_></rects>
              <tilted>0</tilted></feature>
            <threshold>3.5101899411529303e-003</threshold>
            <left_val>-0.0795482099056244</left_val>
            <right_val>0.6161237955093384</right_val></_></_>
        <_>
          <_>
            <feature>
              <rects>
                <_>
                  3 5 12 6 -1.</_>
                <_>
                  9 5 6 6 2.</_></rects>
              <tilted>0</tilted></feature>
            <threshold>0.0149480598047376</threshold>
            <left_val>-0.8372241854667664</left_val>
            <right_val>0.3547523021697998</right_val></_></_></trees>
      <stage_threshold>-0.6038693189620972</stage_threshold>
      <parent>13</parent>
      <next>-1</next></_></stages></mycatdetector2>
</opencv_storage>
